<?xml version="1.0"?>
<opencv_storage>
<opencv_ml_svm>
  <format>3</format>
  <svmType>C_SVC</svmType>
  <kernel>
    <type>LINEAR</type></kernel>
  <C>1.</C>
  <term_criteria><iterations>1000</iterations></term_criteria>
  <var_count>3780</var_count>
  <class_count>2</class_count>
  <class_labels type_id="opencv-matrix">
    <rows>2</rows>
    <cols>1</cols>
    <dt>i</dt>
    <data>
      -1 1</data></class_labels>
  <sv_total>1</sv_total>
  <support_vectors>
    <_>
      -2.46821493e-002 -4.14393283e-003 2.85279285e-002 -3.44617944e-003
      -1.90813411e-002 1.95657928e-002 8.89931340e-003 1.00313686e-002
      -1.75796766e-002 -1.89649351e-002 2.08487804e-003 -3.90280760e-003
      -1.72359440e-002 -3.21197063e-002 3.01003046e-002 3.68282795e-002
      3.06403954e-002 -1.41249765e-002 -3.43520343e-002 -6.97231339e-003
      -1.47084827e-002 9.95054096e-003 -1.94317661e-002 1.77816059e-002
      4.57268441e-003 5.09074330e-003 -2.92682033e-002 -2.92565878e-002
      -1.65717658e-002 1.03780460e-002 5.81335975e-003 -3.30031365e-002
      1.44629041e-002 3.63226458e-002 1.37033043e-002 -3.52182835e-002
      1.60049070e-002 2.39385869e-002 2.07344703e-002 -6.93448074e-003
      -6.60768673e-002 6.24111015e-003 2.69981958e-002 2.82560214e-002
      2.25664880e-002 2.54905038e-002 3.61545421e-002 -1.84794154e-003
      8.37663468e-003 -3.86349037e-002 4.55805426e-003 3.31186224e-003
      1.61363259e-002 2.82199914e-003 -1.24434819e-002 6.12669019e-003
      2.35542934e-002 -3.80477053e-003 -7.22237900e-002 9.99638904e-003
      2.84370314e-003 9.66822635e-003 -1.38779450e-002 -2.48771440e-002
      9.28542763e-003 -3.40194511e-003 -1.09281596e-002 -2.25800611e-002
      -4.92739584e-003 -1.56522524e-002 -2.35221144e-002
      -6.49739895e-003 -1.32327387e-002 -9.88217871e-005
      -2.37938445e-002 1.49796084e-002 6.66671526e-003 2.10161135e-002
      4.05562343e-003 7.52946502e-003 -3.11099421e-002 7.61240302e-003
      -4.96192602e-003 -6.24019001e-003 2.64982078e-002 1.83068942e-002
      1.96682140e-002 -1.66453402e-002 -1.28697744e-002 -1.25905508e-002
      -2.83613484e-002 -9.79997404e-003 -1.25153707e-002
      -1.09224180e-002 -1.60337531e-003 1.03566917e-002 -1.79471783e-002
      -3.82886268e-002 -3.81053314e-002 2.61792932e-002 1.15640904e-003
      2.91832425e-002 1.76429935e-002 3.67330685e-002 4.16154886e-004
      5.99080790e-003 5.01635391e-003 1.74834635e-002 1.37509778e-002
      1.41483024e-002 -1.26665272e-002 -1.95763968e-002 -3.48392390e-002
      -3.79872434e-002 -3.72384042e-002 -2.05771904e-002
      -2.57649971e-003 1.98876970e-002 5.25763445e-002 2.05548294e-002
      1.62180588e-002 -4.32817116e-002 -3.42241600e-002 -4.44788523e-002
      -4.40514423e-002 1.01046478e-002 3.75499241e-002 -1.31756477e-002
      6.30921591e-003 -1.37978848e-002 -3.09106894e-002 -3.56707536e-002
      -2.44868710e-003 5.11083147e-003 2.65530758e-002 4.27761413e-002
      8.19001533e-003 -5.37735061e-004 -1.53743168e-002 -2.11085919e-002
      7.98641797e-003 -8.38152191e-004 -8.20124242e-003 1.96521748e-002
      1.47855133e-002 3.51759717e-002 3.58911119e-002 1.49213448e-002
      -5.87978177e-002 -3.66110876e-002 -4.52277698e-002
      -5.18969558e-002 -5.89352008e-003 2.06198562e-002 3.65535580e-002
      2.62555461e-002 1.31406290e-002 -3.07730157e-002 -9.71762929e-003
      1.09259365e-002 1.35515630e-002 3.74397053e-003 1.18242353e-002
      -1.01698274e-002 1.82003267e-002 -3.47100720e-002 -3.64470817e-002
      -1.97028555e-003 -4.68847621e-003 -3.43096778e-002 1.34287123e-002
      -9.01832944e-004 -2.62505468e-002 1.43840136e-002 -7.40923593e-003
      -1.98579784e-002 2.19748039e-002 -1.60906930e-002 -1.26156760e-002
      7.85509869e-003 4.40190872e-003 1.43300155e-002 -1.84312500e-002
      -4.08567525e-002 -4.08841744e-002 -6.53847121e-003 2.87998002e-002
      4.67336476e-002 7.62893679e-003 -2.12839246e-002 7.82672595e-003
      -7.34193996e-003 -4.68672886e-002 -3.66406254e-002
      -1.81517042e-002 4.16360144e-003 3.38811576e-002 -1.31238410e-002
      -3.39138173e-002 -4.66503799e-002 1.65994675e-003 -2.27333810e-002
      -5.49856015e-002 3.81851778e-003 1.02802794e-002 2.77874339e-002
      -2.98497062e-002 -1.43742785e-002 -3.14103775e-002
      -1.62498802e-002 -1.17128007e-002 -3.18660624e-002 1.14186862e-002
      1.73111465e-002 3.94511642e-003 -3.20845544e-002 -4.14296761e-002
      -1.65783353e-002 -5.10163931e-003 -1.52728893e-002
      -7.08791986e-002 -1.69308670e-002 8.72184243e-003 4.76151779e-002
      -2.09805239e-002 -2.29237843e-002 -1.32993311e-002
      -5.32571971e-003 -2.09926963e-002 -4.84815091e-002 5.87975979e-003
      1.42169474e-002 4.22812365e-002 -2.90781772e-003 -1.43781770e-002
      -2.92638298e-002 -3.38823460e-002 -2.84512676e-002
      -5.58947995e-002 -2.73384666e-003 2.23964900e-002 2.18463223e-002
      -2.44988017e-002 1.38211101e-002 -1.70998238e-002 -2.82387473e-002
      -2.08304971e-002 -7.72184357e-002 -2.15493632e-003 2.62817144e-002
      -1.27328373e-002 -1.80576649e-002 -3.92518751e-003
      -2.22849194e-003 1.27003472e-002 -6.61609648e-003 -6.11980632e-002
      6.89691491e-003 -2.21406352e-002 -8.43703747e-003 1.65612604e-002
      1.02307983e-002 1.62115470e-002 8.34394898e-003 -2.51623318e-002
      -5.02592027e-002 -4.78620845e-004 -3.02565508e-002
      -7.62585900e-004 2.25375742e-002 -4.51921159e-003 -3.34741324e-002
      -3.90427485e-002 -6.24485034e-003 -4.88049760e-002
      -6.39621820e-003 -8.87183193e-003 -5.79820052e-002
      -4.42359364e-003 1.82634089e-002 1.56043842e-003 -5.55136800e-002
      -3.01007014e-002 -2.89103482e-002 1.29808194e-003 -3.59684490e-002
      -4.35472503e-002 8.41028406e-004 1.90358069e-002 1.59731302e-002
      -1.96995735e-002 -5.62536009e-002 -8.80214795e-002
      -3.13209333e-002 -2.83357669e-002 1.66378636e-002 3.29997391e-002
      2.74348129e-002 3.14415880e-002 -3.31729511e-003 -3.46452408e-002
      -7.24961013e-002 -2.91217901e-002 -6.05090149e-003 3.89011353e-002
      4.37648632e-002 2.59001534e-002 1.09814452e-002 -1.90174282e-002
      -3.90762016e-002 -4.51264754e-002 -4.54182401e-002
      -4.00573723e-002 -3.06654330e-002 1.99465659e-002 4.91211750e-002
      1.48784751e-002 3.00159492e-002 4.39346815e-003 -2.91441977e-002
      -2.71428712e-002 1.09851323e-002 1.32824329e-003 4.54118848e-002
      9.41512699e-005 -1.02361944e-002 -2.44360678e-002 -2.55745407e-002
      -6.37975261e-002 -5.58292866e-003 -1.16767716e-002 2.32957937e-002
      2.67575029e-002 9.77376569e-003 -1.14344163e-002 -1.39009766e-002
      -8.51635635e-003 -4.62936796e-002 1.49877118e-002 -2.14467105e-002
      2.72599943e-002 4.20171544e-002 -1.49684157e-002 -2.94353440e-002
      4.66098217e-003 -2.19961745e-003 -5.70661165e-002 4.85304154e-005
      1.80996247e-002 -1.56455976e-003 -5.01077669e-003 -3.28706257e-004
      -5.73829329e-003 1.53790670e-003 1.45342890e-002 -4.47224751e-002
      2.51090322e-002 -8.66372418e-003 2.73012221e-002 9.28311609e-003
      -1.43223722e-002 -7.68353045e-003 -2.65614986e-002
      -1.14917494e-002 -2.07445100e-002 2.02480089e-002 -3.04375519e-003
      2.35993806e-002 -2.91928975e-003 -3.30422074e-004 -1.64727215e-002
      -7.46707572e-003 2.83142515e-002 -3.04695964e-002 2.42104121e-002
      1.71859395e-002 4.17514890e-002 -1.46053254e-003 -2.58601736e-003
      -1.59727726e-002 -1.72922295e-002 -2.32142117e-002
      -2.46101953e-002 2.51115933e-002 -4.86713322e-003 3.82963158e-002
      -1.17714694e-002 2.29842961e-002 -5.48802735e-003 -2.77933870e-002
      8.35459586e-003 -4.13274430e-002 4.04360108e-002 8.18817504e-003
      1.92039628e-002 7.82344956e-003 7.20525347e-003 -2.38212539e-004
      2.28285212e-002 1.87172703e-002 -5.24291359e-002 6.79633301e-003
      1.28802937e-002 4.09631133e-002 6.70509320e-003 -6.34089559e-002
      -9.12367832e-003 7.82935764e-004 -1.90736016e-003 -6.05910048e-002
      -3.02123977e-003 -2.94492356e-002 2.62407009e-002 -4.76801060e-002
      5.71381347e-003 3.18591669e-002 1.99360540e-004 2.58334056e-002
      -4.76771556e-002 3.31438407e-002 7.91243836e-003 1.76437628e-002
      2.70787198e-002 -2.48261765e-002 4.01431322e-002 7.25087803e-003
      2.13315580e-002 -4.81508598e-002 2.24012625e-003 -3.05993017e-002
      4.04492803e-002 -1.12912618e-002 -6.85932487e-002 -1.98098947e-003
      -1.72261875e-002 1.11999735e-002 -2.99169123e-002 -6.28617033e-003
      -5.47860228e-002 4.47608763e-003 -6.39913082e-002 -2.81995628e-002
      -1.51935117e-002 -1.11931516e-002 4.66589630e-002 -3.44982073e-002
      -1.41155105e-002 -4.78492118e-002 9.94309690e-003 -2.46987920e-002
      -3.09406053e-002 2.38489602e-002 6.77284878e-003 3.73352878e-002
      -2.63421740e-002 -8.07847921e-003 -3.00733633e-002 4.71309833e-002
      -4.50671092e-002 -3.39995995e-002 5.00479992e-003 -1.56433247e-002
      3.43628153e-002 -1.66524220e-002 6.42010057e-003 -2.73369234e-002
      3.75457741e-002 -2.80055758e-002 5.79215726e-003 -4.33878973e-003
      1.05422623e-002 4.19972278e-002 -8.08820277e-002 -2.28381809e-002
      -1.17705679e-002 3.55352685e-002 9.56196617e-003 -9.76372976e-004
      -5.47502842e-003 1.04206726e-002 3.27190347e-002 -1.04391336e-001
      -4.71216664e-002 -3.33916619e-002 5.15754111e-002 -6.70370646e-003
      -2.73829931e-003 9.31806583e-003 -4.45180433e-003 3.01162768e-002
      -6.96454123e-002 -8.33082944e-003 1.06841382e-002 3.52593772e-002
      7.37871882e-003 1.89928971e-002 2.81338412e-002 6.02555461e-003
      2.21430734e-002 -7.04266876e-002 -2.61973012e-002 -4.68798401e-003
      4.88107465e-002 -5.34064369e-003 -1.41827762e-003 -6.63575949e-004
      8.35320447e-003 6.35407493e-002 -8.00583959e-002 -1.90388188e-002
      -2.36303397e-002 5.24612479e-002 8.65479093e-003 -1.38044255e-002
      -1.64998043e-003 -5.27894534e-002 4.58616652e-002 -7.91579485e-002
      1.41949374e-002 3.29844616e-002 6.03647716e-002 1.10632749e-002
      4.46215738e-003 2.21511312e-002 1.14843063e-002 8.44932273e-002
      -6.44590482e-002 3.35203437e-003 -3.52489809e-003 4.00718488e-002
      -4.56422800e-003 -2.46998239e-002 2.98440806e-003 -1.43470634e-002
      5.42917289e-002 -7.11718127e-002 5.59862889e-003 4.48762951e-003
      2.21716911e-002 -3.25062573e-002 -1.02846995e-002 7.44563155e-003
      -2.22984571e-002 9.74457432e-003 -7.86934514e-003 -1.50532450e-003
      -3.73229571e-002 -2.65967585e-002 -7.38688232e-003
      -2.17059925e-002 2.44705263e-003 9.84190963e-003 2.04936061e-002
      -3.22776102e-003 -8.28578603e-003 -1.91720687e-002
      -1.84076186e-002 -4.19145776e-003 -1.86297968e-002 1.13016926e-002
      -1.06870597e-002 -5.52496547e-003 -1.13766193e-002
      -1.23925153e-002 -2.50694100e-002 -2.03143377e-002
      -2.94790938e-002 -1.99575368e-002 -1.93525795e-002
      -3.63367703e-003 1.79328937e-002 2.36061942e-002 -6.70705317e-003
      -2.49183066e-002 -2.27581561e-002 -6.23944402e-003
      -3.43331024e-002 1.74250472e-002 3.05756126e-002 1.65175162e-002
      -2.87993215e-002 9.46343131e-003 9.78561677e-003 -1.28105599e-002
      -2.13641562e-002 -4.19483781e-002 -3.34908429e-004 1.94164664e-002
      2.19053924e-002 -4.71287742e-002 -4.07521846e-003 1.81131251e-002
      -3.01334299e-002 -3.40995826e-002 -4.38710824e-002
      -2.39515435e-002 9.00529046e-003 3.93547229e-002 1.07310957e-003
      1.77611522e-002 2.52354927e-002 -1.06222816e-002 -2.50245295e-002
      -1.52256154e-002 -8.97005107e-003 4.52832170e-002 3.53713147e-002
      -1.87975559e-002 2.40587885e-003 4.76969294e-002 -1.36058684e-002
      -4.55749966e-002 -3.31179723e-002 -1.11775240e-002
      -3.78663233e-003 -1.79480072e-002 -4.31187898e-002 3.29175987e-003
      -1.50753567e-002 -4.07180153e-002 -3.58067006e-002
      -4.13618097e-003 1.00624245e-002 1.76069792e-002 -2.38283072e-004
      8.62826873e-003 1.94610294e-003 7.33023928e-003 -1.63413305e-002
      -9.22987424e-003 -1.73560157e-002 -1.27333403e-003 3.04393079e-002
      -1.38998393e-003 -6.61047623e-002 -6.20940747e-003 1.71610489e-002
      -2.93727964e-002 -5.00533208e-002 3.34403776e-002 2.60430109e-002
      4.37293127e-002 -5.05307580e-005 -3.58930603e-002 2.53937580e-003
      -5.41118719e-003 -2.09023077e-002 -9.03614517e-003 2.81730462e-002
      2.82122783e-004 -1.04000196e-002 1.39024416e-002 -2.36744341e-002
      -1.59029067e-002 1.38341598e-002 5.97138249e-004 2.04662763e-004
      3.09912339e-002 -5.95678389e-002 -3.81774381e-002 -1.89972222e-002
      -2.57920474e-002 1.24936589e-004 5.35570690e-003 3.49632166e-002
      3.29519361e-002 3.12183313e-002 -3.09889135e-003 -3.23504321e-002
      -1.80506334e-002 -4.73569371e-002 -2.56190877e-002
      -2.00241618e-002 -2.38484163e-002 5.89354150e-003 8.97395983e-003
      -7.16390312e-002 -9.88928676e-002 -7.11650774e-002
      -1.89871714e-002 1.91260017e-002 -5.20721870e-003 1.93881355e-002
      2.95436885e-002 -2.70540975e-002 -9.83786434e-002 -2.59191822e-002
      -2.84953844e-002 -1.73985008e-002 1.91738689e-003 -1.85467093e-003
      -3.48851620e-003 -9.93217342e-003 -6.17812797e-002
      -1.05989918e-001 -1.04605639e-002 6.62489235e-003 3.09956800e-002
      4.39199321e-002 2.96395589e-002 -1.89672299e-002 -2.28547323e-002
      -2.87809838e-002 -1.18675396e-001 -9.08892974e-002
      -1.99867915e-002 4.65205312e-003 3.54354158e-002 5.38948737e-003
      -9.17779002e-003 -1.94024760e-002 -2.44286787e-002
      -6.86177537e-002 -2.22236868e-002 4.24849503e-002 6.67646751e-002
      8.89984518e-002 4.90272231e-002 -5.25100576e-003 -3.48253991e-003
      -7.68630579e-002 -9.30750519e-002 -1.68340765e-002 3.47719790e-004
      -2.66371351e-002 2.22084783e-002 5.99195994e-003 -8.77828151e-003
      -5.26401103e-002 -3.37803438e-002 -4.88861278e-002 1.32723125e-002
      2.34264731e-002 1.45946238e-002 4.97157127e-002 2.89459154e-002
      6.89971633e-003 -5.92298992e-002 -6.94163516e-002 -4.91956435e-002
      -2.87442692e-002 2.23337188e-002 2.38674097e-002 3.87867354e-002
      8.22534505e-003 -6.08940236e-003 -1.00792190e-002 -2.09767167e-002
      1.87401031e-003 -2.15070928e-003 4.95163649e-002 2.75319498e-002
      2.81528328e-002 -9.56538133e-003 -5.19785937e-003 -2.37744153e-002
      -1.12309474e-002 -1.98365301e-002 -8.60718079e-003 1.50809446e-002
      -3.73937041e-002 2.51955837e-002 1.38796987e-002 -1.15875378e-002
      -4.32053246e-002 1.93510030e-003 -1.92252100e-002 -3.03791817e-002
      7.37859309e-003 -6.99255019e-002 1.06762291e-003 -1.45810731e-002
      -7.11488649e-002 -2.13382374e-002 -8.16544518e-003
      -1.84459873e-002 1.16806282e-002 5.50011396e-002 -2.75560860e-002
      1.34167087e-003 -2.98974793e-002 -3.62149328e-002 -4.41702828e-002
      -2.64524072e-002 -3.29175740e-002 -8.15705117e-003 6.83405548e-002
      -2.58093886e-002 1.74621250e-002 -3.40899676e-002 -8.38016272e-002
      -5.07762134e-002 -2.68246303e-003 -4.06870507e-002
      -4.08135168e-002 1.84773207e-002 -4.26743887e-002 -4.14431421e-003
      -2.13665590e-002 -6.08915761e-002 1.32072475e-002 2.80770510e-002
      -2.49358080e-002 -2.15279590e-002 4.70450427e-003 -2.19328031e-002
      -1.84825417e-002 -5.78397065e-002 -3.98049653e-002 3.83301079e-002
      -1.35732172e-002 -4.92918752e-002 -3.53956223e-002 6.67768121e-002
      -3.59586556e-003 1.93556752e-002 -1.64532047e-002 -7.36149549e-002
      -4.05178070e-002 -1.35989245e-002 -5.50786778e-002
      -1.10851713e-002 3.40327807e-002 1.50226364e-002 3.09707541e-002
      -1.57632641e-002 -1.33769512e-002 -1.08332308e-002 9.81285796e-003
      -1.91079043e-002 -2.02129618e-003 -3.67941539e-004
      -4.50780578e-002 -3.85048203e-002 -4.98192832e-002
      -4.17539328e-002 3.14325504e-002 4.21886556e-002 2.23749354e-002
      2.24950295e-002 7.52499467e-003 -4.04834859e-002 -3.91007736e-002
      -2.10470110e-002 -1.66934375e-002 4.69137877e-002 -1.56573206e-002
      -4.05865274e-002 1.20584778e-002 2.05338839e-002 6.40652748e-003
      7.43189314e-003 -4.56523784e-002 -4.90250513e-002 -3.06938626e-002
      2.75111273e-002 1.82696525e-002 2.96227187e-002 2.30507236e-002
      1.06337573e-002 -1.27356015e-002 -3.65572833e-002 -4.59232852e-002
      -5.07327402e-003 -8.44782498e-003 -1.59185911e-005 1.69303212e-002
      1.06058698e-002 -7.51754940e-002 -1.92144979e-002 1.21022640e-002
      3.01132910e-003 1.64929032e-002 -1.04557564e-002 -2.59395549e-003
      2.22464968e-002 4.10919785e-002 -5.69986477e-002 2.47826762e-002
      1.04238056e-002 4.20448594e-002 1.44205829e-002 1.38519434e-002
      4.75763017e-003 6.20263629e-003 8.16893112e-003 -1.53590459e-002
      -1.49938138e-003 -1.63943600e-002 -3.68463956e-002
      -3.60782966e-002 -2.49336399e-002 -7.55780470e-003
      -1.67468726e-003 1.93053968e-002 -2.61062589e-002 2.51014736e-002
      1.80042032e-002 -2.58753859e-002 -2.91152447e-002 -4.18378226e-003
      -1.20322770e-002 2.81638633e-002 1.15827322e-002 -7.30303526e-002
      1.44549469e-002 8.92346352e-003 5.20561002e-002 1.62103940e-002
      3.27580422e-002 -4.77943523e-003 -2.83610495e-003 -3.02754284e-004
      -6.57730103e-002 9.08672996e-003 5.83713688e-003 4.41616103e-002
      3.18538621e-002 -3.33893113e-002 -3.19203325e-002 4.09499276e-003
      -1.19131962e-002 -5.01722544e-002 -8.04352574e-003
      -5.54786203e-003 -1.73946153e-002 -2.56517492e-002
      -3.20177316e-003 -3.14134657e-002 -2.72005945e-002
      -1.75822992e-002 -5.20093404e-002 3.68832983e-003 -3.04897521e-002
      2.35841069e-002 -4.57568839e-003 3.26394960e-002 4.14835773e-002
      8.81949533e-003 1.03222625e-002 -7.55524933e-002 7.19245011e-003
      -8.27371515e-003 1.61390472e-002 1.55875264e-002 3.27958465e-002
      5.44950999e-002 2.82821972e-002 5.19871525e-003 -9.26019996e-002
      -5.68814529e-003 3.02129937e-003 2.05677431e-002 1.11333625e-002
      -2.17618737e-002 1.13539342e-002 -1.66361555e-002 -1.05643449e-002
      -6.41791821e-002 -9.83883627e-003 -4.75192592e-002
      -2.22879145e-002 -2.04160102e-002 -1.19418968e-002 5.12670055e-002
      3.04894354e-002 1.94144733e-002 -9.36582685e-002 -1.19676972e-002
      -2.30689235e-002 -2.57579964e-002 -9.46705230e-003 1.27664395e-002
      1.02637568e-002 1.10244029e-003 8.22543819e-003 -8.49324316e-002
      -1.32742254e-002 -2.13398831e-003 2.70756185e-002 2.77158525e-002
      -2.88084336e-003 -2.80472147e-003 -3.93886231e-002 1.83435529e-003
      -6.25280216e-002 9.41300113e-003 -2.12051366e-002 3.53314131e-002
      2.92734485e-002 4.75289562e-004 8.48945137e-003 2.19209772e-003
      4.00059810e-003 -7.70335197e-002 -1.14050787e-002 -2.73115225e-002
      -6.98775798e-003 9.60484799e-003 -1.37519538e-002 -1.12818591e-002
      -4.05967273e-002 -5.03037544e-003 -7.40637854e-002
      -2.94608865e-002 -2.39000116e-002 -1.90547351e-002 2.78011849e-003
      3.86961214e-002 1.66293308e-002 -3.45124193e-002 -4.99329017e-003
      -8.66838545e-002 -7.37563008e-003 9.62130260e-003 2.76046786e-002
      4.01509739e-002 2.95969062e-002 2.71118116e-002 2.60838773e-003
      9.75836441e-003 -8.10055956e-002 -3.71120758e-002 -1.16943968e-002
      1.48907611e-002 1.94547605e-002 2.59361733e-002 1.63887274e-002
      -4.15418148e-002 -8.91209021e-003 -9.36552510e-002
      -4.54390869e-002 -3.86269502e-002 1.40494329e-003 4.00824333e-003
      2.81502698e-002 1.06716808e-002 5.03976038e-003 -4.07852815e-004
      -7.75156841e-002 -4.17772941e-002 -6.55966848e-002
      -9.63671599e-003 -7.51684466e-003 1.43172638e-002 1.78334266e-002
      1.43433455e-003 5.16857281e-002 -6.68566748e-002 -2.12437417e-002
      -1.57050006e-002 -3.92365502e-003 4.71099885e-003 -1.68319989e-003
      -5.08192740e-003 -1.15074338e-002 4.32960205e-002 -1.04737401e-001
      1.31277973e-002 -6.88483648e-004 -5.82498452e-003 -2.56870426e-002
      8.02159868e-003 -6.04877016e-003 -2.21795679e-004 1.84732601e-002
      -7.13172704e-002 -3.61137539e-002 -4.74885777e-002
      -1.90702993e-002 -2.56748386e-002 -4.12775204e-003 1.38958944e-002
      -8.42605624e-003 6.02916367e-002 -9.00567621e-002 -1.94484256e-002
      -1.00860633e-002 -1.35374907e-002 -2.90053021e-002
      -3.05018313e-002 4.12228890e-003 -8.06012005e-003 -1.69690419e-002
      -1.16916960e-002 -2.13553645e-002 -7.36107631e-003
      -1.95511617e-002 -4.13870737e-002 -1.22879269e-002
      -1.83698889e-002 -1.11936508e-002 -1.51652750e-002
      -3.22571918e-002 -1.47100110e-002 -8.72046687e-003 3.25971190e-003
      -2.53355633e-002 -1.77040324e-002 3.73119861e-002 2.57570855e-002
      3.18173785e-003 -2.79104710e-002 -2.46981513e-002 -2.13601049e-002
      -2.03509275e-002 -3.56416777e-002 9.46157984e-003 4.73420173e-002
      7.10210204e-003 2.90898402e-004 -1.44591276e-002 -9.26004350e-003
      2.45543313e-003 -9.36922338e-003 -9.40179545e-003 -5.59195783e-003
      -4.30409797e-002 -3.67169688e-003 8.96033552e-003 -3.59010324e-002
      4.52269800e-003 2.51857527e-002 3.57124619e-002 1.87720652e-004
      1.89223944e-003 -3.61959077e-002 1.88096073e-002 1.47380093e-002
      -1.72015913e-002 4.96281253e-004 1.39103988e-002 -1.88834053e-002
      4.10257885e-003 1.30187534e-002 -3.43930386e-002 -1.79389883e-002
      -2.82333568e-002 -4.68327776e-002 -1.40577052e-002 1.20805735e-002
      2.39684824e-002 2.02328227e-002 -2.86420416e-002 -8.05282220e-002
      -9.45184231e-002 -4.39128429e-002 -2.26408970e-002
      -8.29111319e-003 -1.07556842e-002 -1.49649391e-002 7.04938266e-003
      -5.11572231e-003 -9.79794934e-003 3.79273854e-002 -1.44739291e-002
      -4.15633954e-002 1.92915392e-003 8.53598770e-003 -2.04264186e-002
      1.72210566e-003 2.10188255e-002 2.60546673e-002 4.07638960e-002
      8.38580634e-003 -2.05096137e-002 -1.33768655e-002 -3.07320580e-002
      -1.84673816e-002 4.91024274e-003 -7.61219114e-002 -8.18015933e-002
      -5.31985760e-002 -3.02109011e-002 -1.49592040e-002 7.59838987e-003
      -4.02440876e-002 -6.18368201e-002 -5.10325097e-002
      -2.75564883e-002 -2.38098893e-002 -5.92124462e-003
      -4.54313727e-003 2.23931279e-002 1.25502218e-002 -7.29958713e-002
      -5.92264608e-002 -4.60027978e-002 2.91945729e-002 1.59365428e-003
      -7.73515403e-002 -7.02463314e-002 -5.66790588e-002
      -3.21777649e-002 -4.36846688e-002 -1.53909074e-002 2.25509778e-002
      2.10889019e-002 -5.45016937e-002 -1.21903688e-001 -9.29408148e-002
      -1.98221710e-002 3.01547013e-002 7.59915542e-003 1.57565046e-002
      4.38154191e-002 1.96629986e-002 -6.10943325e-003 -8.23625103e-002
      -7.49436691e-002 -2.52795648e-002 -1.95515845e-002
      -6.98888153e-002 -2.86819227e-002 -8.70219618e-003 7.55003840e-002
      3.49399596e-002 -2.42903754e-002 -3.00680660e-002 -2.65175980e-002
      1.06608570e-002 1.10884281e-002 4.17355150e-002 1.00019664e-001
      -5.26198074e-002 -1.16609164e-001 -1.33844092e-001
      -6.47999644e-002 -5.16650155e-002 3.37914564e-003 -3.32427137e-002
      -5.47047630e-002 -2.02831533e-002 -8.83665588e-003
      -4.54844832e-002 -2.65765134e-002 1.88252181e-002 1.07997367e-002
      4.64210175e-002 -4.30766214e-003 -5.07869869e-002 -1.77389625e-002
      1.35562979e-002 -6.73342869e-003 -3.66015211e-002 -1.19208731e-002
      -4.57829088e-002 -2.45866608e-002 -3.88884544e-002
      -1.32339913e-002 2.86889020e-002 1.56959426e-002 -9.68464592e-004
      -1.96827762e-003 1.23065403e-002 3.77505342e-003 2.85928212e-002
      -3.42542678e-002 -1.70937944e-002 2.72202102e-004 -5.51050976e-002
      -4.60260883e-002 -4.48170602e-002 -1.93685610e-002
      -3.99474949e-002 -1.10485191e-002 -2.39221361e-002
      -2.45315023e-002 -4.18996476e-002 -1.68307964e-002
      -4.24925759e-002 -3.59634049e-002 -9.75759793e-003
      -4.57036234e-002 -3.33671905e-002 -3.71462591e-002
      -2.32790224e-002 -4.74631600e-003 -8.24391469e-003 9.89346765e-003
      -2.24547721e-002 -1.89906284e-002 -5.03568500e-002 1.77079234e-002
      -2.78334711e-002 -1.16538191e-002 -2.17156182e-003 4.42670239e-003
      2.12206598e-002 1.04258126e-002 5.65175805e-003 -5.23718409e-002
      2.65682619e-002 -2.38956362e-002 4.40768618e-003 3.19679491e-002
      -2.83099711e-002 -5.95434047e-002 -3.44866961e-002 1.05405860e-002
      -8.78128856e-002 -3.32560763e-002 -6.44315630e-002
      -1.68384779e-002 -3.91174816e-002 -3.23895998e-002
      -6.32370114e-002 -5.95752820e-002 3.35419923e-002 -7.26271495e-002
      -1.07382908e-002 -6.14465140e-002 -4.36634533e-002
      -3.77579257e-002 -8.19193758e-003 1.23443315e-002 6.95860339e-003
      4.60759774e-002 -5.30896708e-002 3.42562310e-002 -1.77262798e-002
      1.06928498e-002 2.87635811e-002 3.48498207e-003 2.06446014e-002
      -1.04040084e-002 3.98682877e-002 -5.90385869e-002 2.17139069e-002
      -7.15658348e-003 4.05060723e-002 4.02278081e-002 -1.56061025e-002
      -6.81256577e-002 -6.59491271e-002 3.33324037e-002 -5.80091402e-002
      -1.22022089e-002 -2.72359569e-002 -5.72517328e-002
      -4.94925976e-002 -3.06099672e-002 -5.05353734e-002
      -4.66893129e-002 -8.22790340e-003 -3.18782926e-002 1.80313252e-002
      -2.77288631e-002 -6.29022792e-002 -4.84853126e-002 4.61513177e-002
      2.84441356e-002 7.70939048e-003 2.29790658e-002 -1.01516828e-001
      -2.65413113e-002 -2.31319778e-002 1.71110053e-002 4.78337258e-002
      4.11848240e-002 3.64859551e-002 4.13024239e-003 1.85565464e-002
      -8.30926225e-002 -4.52471823e-002 -3.44918035e-002
      -1.28506375e-002 3.95262763e-002 -5.38685136e-002 -2.46233586e-002
      -2.58030612e-002 -6.42765919e-003 -3.47981080e-002
      -4.18540463e-003 -4.71818037e-002 -9.89400670e-002
      -8.03874210e-002 -2.94716302e-002 1.44446008e-002 -5.22847380e-003
      1.34956436e-002 -2.56319270e-002 -1.21605042e-002 -5.28228842e-002
      -8.27720240e-002 -4.60314043e-002 5.35658523e-002 4.72426638e-002
      5.27731748e-003 4.17827480e-002 -7.85547271e-002 -4.40593772e-002
      -5.12841158e-002 -6.03386841e-004 2.27432717e-002 3.46362852e-002
      4.69637029e-002 -6.14386890e-003 3.57625820e-002 -7.33463094e-002
      -2.34553535e-002 -4.03165407e-002 2.26131547e-002 1.67737473e-002
      -4.63749655e-002 9.22823325e-003 -1.39320781e-002 3.76781560e-002
      -7.95164239e-003 2.69811433e-002 -2.02019587e-002 -8.71224403e-002
      -8.95694420e-002 -6.97351098e-002 -1.20740002e-002
      -4.43685427e-002 2.62407809e-002 -2.69614346e-002 1.77992880e-002
      -5.08878343e-002 -9.83854309e-002 -9.89973694e-002 2.35340185e-002
      5.33663072e-002 1.37442816e-002 5.53856827e-002 -4.72514145e-002
      1.89252235e-002 -2.67666820e-002 4.38705720e-002 1.55543685e-002
      -1.91449579e-002 2.57882699e-002 1.22941807e-002 6.79926425e-002
      -2.36898242e-003 4.02286947e-002 -3.29134092e-002 -1.77631713e-002
      -5.17468713e-002 -1.37756951e-002 -2.64408570e-002
      -3.07397228e-002 8.94806348e-003 -3.30906995e-002 1.04579888e-002
      -1.79104116e-002 -6.89904392e-002 -3.28213684e-002
      -4.03532870e-002 -6.82817176e-002 -3.53272445e-002
      -7.00737024e-003 -2.12268662e-002 1.21629946e-002 -4.35801372e-002
      -4.36654016e-002 -5.26718348e-002 -5.35258092e-003 2.34815963e-002
      5.53397415e-003 5.69441803e-002 2.54204571e-002 4.11081165e-002
      -1.28508247e-002 -3.50257047e-002 -2.31960975e-003
      -5.15642278e-002 -4.38761152e-002 -8.28963052e-003 3.05659790e-002
      -1.34434635e-002 4.24527451e-002 -4.82696518e-002 -2.89172996e-002
      -1.87763479e-002 -5.44430204e-002 -2.48287469e-002 5.19448332e-003
      5.01784720e-002 4.03973693e-003 5.23262769e-002 1.34082322e-004
      -2.84517836e-002 -7.07699433e-002 -1.73964649e-002 1.80618726e-002
      2.38165036e-002 4.47877496e-002 -2.11474486e-002 4.92717959e-002
      -1.15585653e-003 -5.48032671e-002 -6.96176291e-002
      -5.87629490e-002 -3.59012969e-002 1.10213729e-002 5.63569926e-002
      2.93752234e-002 8.92118514e-002 8.36747204e-005 -1.69928577e-002
      -2.35877205e-002 -4.24607322e-002 7.65547436e-003 -4.19629691e-003
      3.00958976e-002 1.28867412e-002 5.96979484e-002 -2.18414478e-002
      -6.79480731e-002 -4.04531583e-002 2.54033040e-003 4.41258661e-002
      3.92898656e-002 6.88567162e-002 2.34720837e-002 6.17294051e-002
      1.25430161e-002 -2.88657174e-002 -4.25892100e-002 -1.80077758e-002
      1.49654308e-002 -8.97974707e-003 4.97821122e-002 7.75756454e-003
      2.57575531e-002 1.19828852e-002 -5.01306430e-002 -3.18432041e-002
      -5.23957936e-003 1.91089213e-002 -1.47025858e-003 4.13745232e-002
      2.89153066e-002 3.83220240e-002 -4.15381268e-002 -8.06535780e-002
      -2.77018305e-002 -5.52416109e-002 -5.22180349e-002
      -5.68397529e-002 -3.52169573e-003 -6.29206561e-003
      -2.69943997e-002 -8.16756040e-002 -9.95695293e-002
      -5.72583489e-002 3.69390361e-002 2.33450998e-002 -2.10358435e-003
      2.58456301e-002 3.39997793e-003 5.23471925e-003 -9.36264824e-003
      -2.28674393e-002 -5.39254164e-004 5.18505052e-002 3.26410495e-002
      4.33765054e-002 2.52198968e-002 -2.08282564e-002 -2.92799785e-003
      -7.82906171e-003 6.04692986e-003 2.04023216e-002 -3.53045240e-002
      -8.59465152e-002 -7.42902756e-002 -5.25474437e-002
      -1.45787513e-002 -4.83498983e-002 -6.40669912e-002
      -8.41178223e-002 -5.91985472e-002 -4.32500653e-002
      -6.29863217e-002 -5.00233024e-002 -7.10687712e-002
      -4.74116728e-002 -7.95769021e-002 -4.16545682e-002
      -2.98522115e-002 -4.66599464e-002 -1.57564587e-003
      -1.15872286e-002 9.21646060e-005 2.23639216e-002 -8.39800313e-002
      -3.83797735e-002 -3.89129780e-002 -1.17499446e-002
      -3.41759250e-002 2.10835561e-002 4.85555679e-002 2.59809271e-002
      8.54138136e-002 -7.32266754e-002 -6.31390000e-003 7.02332123e-004
      2.31784824e-002 -3.68642062e-003 -6.59320280e-002 -3.60756852e-002
      -5.85885756e-002 -6.42744452e-002 -7.74623826e-002
      -9.05714855e-002 -8.13379139e-002 -2.36056671e-002
      -5.38858622e-002 3.60097364e-002 6.88233897e-002 2.81257518e-002
      3.17445770e-002 -9.20535177e-002 -4.74933125e-002 -1.36008323e-003
      5.26804291e-002 2.33066063e-002 -8.48911330e-003 2.92591136e-002
      1.24890069e-002 -2.74979845e-002 -3.35553698e-002 5.94077213e-003
      -2.53835577e-003 -4.01129387e-003 -2.38640811e-002
      -2.25206977e-003 4.87078615e-002 1.03367930e-002 1.55738303e-002
      -1.46746477e-002 1.89023335e-002 3.70159782e-002 4.61806543e-003
      -1.76513642e-002 -5.63471317e-002 -2.57259216e-002
      -2.99469866e-002 -3.95982265e-002 -4.21704464e-002
      -4.01782664e-003 -9.79683129e-004 -2.04557483e-003
      -4.53372188e-002 -2.14264002e-002 -1.32645424e-002
      -2.66717561e-002 -5.73844910e-002 -2.96030734e-002
      -2.07552202e-002 3.62659506e-002 3.87011953e-002 -9.40876827e-003
      3.54846269e-002 1.15123400e-002 -1.58690028e-002 -2.71251369e-002
      -4.43542711e-002 9.84645821e-003 3.96485440e-002 2.72863768e-002
      3.07709239e-002 9.48171876e-003 -3.70328017e-002 -6.91869333e-002
      -6.84906393e-002 -4.67457846e-002 -6.62481121e-004 6.48253132e-003
      4.04856540e-002 5.60823381e-002 3.31278034e-002 1.34617472e-002
      -3.71284387e-003 -6.16146997e-002 -9.05060396e-002
      -4.76592481e-002 -3.18361213e-003 1.30349807e-002 3.12498063e-002
      2.98028737e-002 5.28664235e-003 -2.80781854e-002 -6.47383034e-002
      -8.25028419e-002 -6.47421703e-002 -7.09314868e-002
      -4.94449362e-002 3.65506858e-002 -5.57183661e-002 -7.55164996e-002
      -6.52832538e-002 -1.53952958e-002 1.54962894e-002 1.92115270e-002
      -3.23140956e-002 -3.75066325e-002 -1.44044189e-002
      -1.01555502e-002 -2.50133388e-002 -2.12183334e-002 3.25903408e-002
      6.81025907e-002 4.64549400e-002 -6.02013692e-002 -5.49747907e-002
      -3.50881517e-002 -1.46461455e-002 -4.97082956e-002
      -3.71760502e-002 -3.08561251e-002 -2.28351299e-002
      -3.03603578e-002 -9.61396620e-002 -6.27786294e-002 7.01730547e-004
      -7.17098638e-003 -2.62169410e-002 -3.43988910e-002 1.48024783e-002
      1.84385548e-003 1.85802989e-002 -4.76362072e-002 -1.89389437e-002
      2.78670900e-003 9.64193139e-003 -2.72800047e-002 -8.22285935e-002
      -5.11523224e-002 -9.21094045e-003 -1.59400124e-002
      -7.91464373e-002 -4.50317673e-002 -3.39016765e-002 8.57164189e-002
      5.65681383e-002 -3.16935871e-003 -3.83027806e-003 -2.57034209e-002
      -2.28118598e-002 -2.79825628e-002 8.02185480e-003 6.64012507e-002
      -2.53173932e-002 -4.51233983e-002 -8.07277411e-002
      -5.26934862e-002 -3.18887830e-002 -5.47751971e-002
      -9.84683707e-002 -4.61656079e-002 -1.49696609e-002 7.78089166e-002
      2.61590332e-002 -2.62743104e-002 -1.51000014e-002 -2.55580302e-002
      -2.07800940e-002 -2.54927631e-002 2.26093568e-002 5.02947122e-002
      -2.38735834e-003 1.44958757e-002 -3.35432328e-002 -3.24782729e-002
      -6.29189163e-002 -5.93569204e-002 -6.59306943e-002
      -3.88157852e-002 -1.33045006e-003 -1.42257353e-002 1.80212148e-002
      -1.63704623e-002 1.65982619e-002 -1.53562753e-002 -7.92863779e-003
      -3.72799225e-002 -2.17827056e-002 -2.02198382e-002
      -5.97939081e-003 -3.78038622e-002 -6.52322471e-002
      -3.78397778e-002 -4.39402722e-002 -3.61679234e-002
      -4.36037928e-002 -9.65312961e-003 -2.27582436e-002
      -3.10856495e-002 -6.37871958e-003 -4.39676503e-003 2.74629071e-002
      -4.72094584e-003 3.80217880e-002 1.07729237e-003 1.15360767e-002
      -1.51451081e-002 -2.42556110e-002 1.96180120e-003 -1.26324818e-002
      -5.77615458e-004 -5.52131422e-002 2.37748399e-003 -3.82433832e-002
      -2.88675316e-002 -2.98754778e-002 6.04601856e-003 1.52616575e-002
      2.91456026e-003 4.53995122e-003 -6.95202425e-002 1.80458724e-002
      -2.80302931e-002 -1.35511309e-002 -2.71857571e-005
      -3.51789147e-002 -2.64156666e-002 -5.42974062e-002
      -1.58058875e-003 -4.76858877e-002 2.86026858e-002 4.56060423e-003
      9.57585033e-003 -2.11241748e-002 -1.49958953e-002 -4.32034172e-002
      -3.55082527e-002 -2.72905757e-003 -4.73212078e-002 2.69486234e-002
      1.51028181e-003 6.04727678e-003 -1.45189895e-003 -1.13141034e-002
      3.38675198e-003 -1.82134937e-002 2.60130111e-002 -8.06464255e-002
      1.93194728e-002 -1.02275563e-002 -4.03378857e-003 3.66652641e-003
      -2.28665434e-002 1.83637254e-002 -1.02813765e-002 2.60143192e-003
      -7.47181177e-002 4.35705297e-003 2.76413909e-003 4.20168415e-002
      1.84642281e-002 -5.26439026e-003 -4.06977236e-002 -4.62811850e-002
      7.27123348e-003 -7.77264610e-002 -8.11168551e-003 -2.77789943e-002
      8.29548284e-004 2.32024211e-002 -5.94632281e-003 -1.19306392e-003
      -4.58071232e-002 -2.85951886e-002 -1.04669154e-001
      -3.58621171e-003 -3.15739699e-002 4.08056797e-003 1.33147240e-002
      2.67062765e-002 2.56815776e-002 -2.51177116e-004 -1.33738630e-002
      -1.47603467e-001 -4.47390340e-002 1.32458983e-002 3.77901010e-002
      2.90049873e-002 4.32548448e-002 2.64369678e-002 -3.26429866e-002
      2.32214737e-003 -1.02808297e-001 -4.92316559e-002 -3.02674770e-002
      2.63996609e-002 3.69907580e-002 -5.66202798e-004 3.73165123e-002
      -3.66037712e-002 -6.04103729e-002 -1.33334681e-001
      -9.54183377e-003 -1.77387744e-002 1.23400614e-002 1.59692541e-002
      1.90184582e-002 1.51664559e-002 -5.80064282e-002 -4.63218801e-002
      -8.32267031e-002 -8.01119301e-003 6.42456813e-003 2.08510924e-002
      2.40266602e-002 4.75989468e-002 1.83609910e-002 -2.91474853e-002
      3.89304012e-002 -8.53329301e-002 -3.51812243e-002 -4.57128100e-002
      2.06630267e-002 2.63566524e-002 1.01556741e-002 1.37933611e-003
      -2.47143023e-002 2.11548861e-002 -8.02140757e-002 -3.17496024e-002
      -6.93556741e-002 -2.31142752e-002 1.29617350e-002 2.89236326e-002
      -7.14386581e-003 -7.67708570e-002 -2.69052777e-002
      -7.09404498e-002 2.51333090e-003 -1.45894196e-002 3.17478403e-002
      2.46909577e-002 1.02111641e-002 -2.35545728e-002 -4.56293151e-002
      7.97164161e-003 -6.12182617e-002 -5.18386811e-003 -5.99523634e-002
      -1.82714723e-002 9.99379903e-003 -4.27932031e-002 -9.40578803e-003
      -3.38697061e-003 4.55756895e-002 -1.16979731e-002 1.13859987e-002
      -3.21400687e-002 -1.88752022e-002 -1.44899487e-002
      -6.74899071e-002 -7.05591217e-003 1.79689866e-003 4.59439680e-002
      3.06096897e-002 5.55897094e-002 -2.71269884e-002 -3.65141295e-002
      -7.75212348e-002 -3.54976542e-002 -7.14471098e-004
      -9.30198003e-004 5.38915135e-002 1.99938491e-002 4.42166068e-002
      -2.42781620e-002 -4.42114845e-002 -4.14791107e-002
      -7.97014162e-002 6.51615113e-003 3.80721386e-003 5.70696592e-002
      4.66504730e-002 7.20590651e-002 -2.16940120e-002 -7.24156350e-002
      -8.37888047e-002 -3.03405188e-002 1.40732238e-002 7.67011568e-003
      5.46220429e-002 4.57477197e-002 4.87141646e-002 -1.94640905e-002
      -5.34253642e-002 -4.38240282e-002 -2.08767802e-002
      -4.24844213e-002 -2.14334577e-004 3.80856209e-002 2.01363023e-003
      3.54661942e-002 -4.34279256e-002 -5.99479899e-002 -1.89267937e-002
      -3.52694429e-002 3.69949155e-002 1.16416803e-002 6.97872490e-002
      7.20455274e-002 5.54231703e-002 -2.44031996e-002 -8.03078339e-002
      -7.10669607e-002 -4.08669561e-002 -4.04001512e-002
      -9.73026641e-003 6.20201491e-002 2.69146767e-002 2.34125797e-002
      -3.52139622e-002 -9.76159796e-002 -4.54735942e-002
      -7.02127861e-003 -6.18915148e-002 1.31457718e-003 1.45561164e-002
      6.79348176e-003 5.19522876e-002 -8.71561281e-003 -7.25091435e-003
      -9.56537481e-003 -2.84138676e-002 -3.20890844e-002
      -1.18838588e-003 4.33100527e-003 4.08285251e-003 2.96425875e-002
      -2.69134319e-003 -1.43501591e-002 -3.07088308e-002
      -5.60861118e-002 -6.26476780e-002 7.25222984e-003 5.43614328e-002
      2.12061573e-002 6.52976185e-002 2.35806871e-003 -3.43199931e-002
      -4.87416200e-002 -4.21604626e-002 -5.20567708e-002 6.92694914e-003
      4.04022671e-002 3.62519175e-002 4.94296178e-002 1.31733809e-003
      -3.44007686e-002 -4.10684831e-002 -4.24545584e-003 2.38051694e-002
      2.85476651e-002 3.15393135e-002 3.51812579e-002 3.20994295e-002
      -6.04586722e-003 -6.50279922e-003 -1.14057790e-002
      -4.44970615e-002 -4.89845388e-002 -4.23722826e-002
      -8.91478173e-003 -9.06753447e-003 -1.68569125e-002
      -7.16018379e-002 -5.84445111e-002 -6.97288141e-002
      -3.76342312e-002 9.77044739e-003 4.59367707e-002 4.06375341e-002
      4.95774187e-002 1.95396189e-002 2.73478534e-002 2.89917830e-002
      -4.48087007e-002 -6.81938902e-002 -4.70764376e-002
      -1.61442552e-002 -1.34779485e-002 1.31794475e-002 -2.08243113e-002
      -4.46139909e-002 -4.00802419e-002 -7.42867216e-002
      -1.31404214e-002 -4.49967124e-002 -5.53950816e-002
      -2.29428262e-002 2.82078627e-002 1.42575139e-002 -2.82870810e-002
      -6.06049970e-002 -1.43397423e-002 -1.99152697e-002
      -2.19582319e-002 -2.06262525e-002 -4.22848091e-002
      -3.58202085e-002 -1.66833606e-002 5.30578196e-003 -3.44774988e-003
      -4.06739861e-003 -4.73426171e-002 -2.21989006e-002
      -2.54838988e-002 -1.96440294e-002 1.43344300e-002 1.08623412e-002
      -5.48378378e-002 -5.81181943e-002 -5.38633056e-002
      -3.18348818e-002 1.39576718e-002 -1.40111502e-002 -4.36151475e-002
      -3.51029746e-002 9.49480105e-003 -2.44473573e-002 -3.67644690e-002
      -3.06560937e-002 -4.26675491e-002 -1.56066008e-003
      -2.41784286e-002 -6.97399527e-002 -1.11306727e-001
      -6.52738661e-002 -3.66705060e-002 2.32214248e-003 -3.69888335e-003
      4.62270193e-002 8.70358124e-002 4.66645323e-002 2.77526435e-002
      -8.92679170e-002 -1.75526533e-002 1.94372889e-002 6.13074750e-002
      4.85491455e-002 -5.64866476e-002 -2.44712876e-003 -2.74676625e-002
      -7.75202438e-002 -8.91989395e-002 -6.98673949e-002
      -3.47384475e-002 -3.01498007e-002 -3.84913310e-002 1.03083840e-002
      6.41499534e-002 3.81491110e-002 -1.94287219e-003 -8.81403759e-002
      -1.48513122e-002 2.55838148e-002 3.62700522e-002 2.35141981e-002
      -5.13404794e-002 -1.69765968e-002 -2.49252263e-002
      -2.46394295e-002 -4.61015441e-002 1.83384400e-003 -3.18884547e-003
      -1.54119004e-002 -3.53014134e-002 -5.09188930e-003 9.29657184e-003
      -6.67010108e-003 -2.42849085e-002 -4.74020205e-002
      -2.01636739e-002 4.29288074e-002 5.91502190e-002 1.98612493e-002
      -4.80008312e-002 -4.98810830e-003 -1.54977869e-002
      -2.28420645e-002 -2.75899507e-002 7.51645584e-003 -4.22902266e-003
      1.12549798e-003 -4.54926193e-002 1.31694861e-002 2.38868780e-002
      2.41331407e-003 -2.76253317e-002 -1.46722337e-002 5.17055904e-003
      5.01259416e-002 5.04439324e-002 -3.59793170e-003 1.47336898e-002
      1.41912568e-002 1.71321072e-002 -2.82391738e-002 -8.64983574e-002
      -4.87700924e-002 -2.45756675e-002 6.54973381e-004 1.12309624e-002
      1.38624506e-002 -5.61129942e-004 1.82698369e-002 -2.18010275e-004
      -4.59948741e-002 -7.57694617e-002 -1.13885604e-001
      -7.94112757e-002 -2.52543879e-003 2.44511943e-002 3.65458988e-002
      3.37894820e-002 3.30766733e-003 -2.34741569e-002 1.16973501e-002
      2.75242776e-002 2.38709878e-002 1.21710962e-002 1.15723303e-002
      1.72572546e-002 3.29082832e-002 3.25604118e-002 7.71839917e-003
      4.61023347e-003 1.13582965e-002 5.07551897e-003 -9.52188484e-003
      -4.73768264e-002 -5.70280850e-002 -4.87473886e-003
      -1.00363744e-002 1.76197924e-002 -3.38736810e-002 -6.43541589e-002
      -4.73179296e-002 -5.16758375e-002 -3.38081270e-002
      -7.45253935e-002 -4.32165191e-002 8.31564073e-004 9.19501763e-003
      6.05821097e-003 -3.26096229e-002 7.41542364e-003 -3.10998876e-002
      -3.53935808e-002 -2.10469048e-002 -2.26615509e-003 9.77543276e-003
      4.02713083e-002 -7.73297343e-003 -2.50549708e-003 2.17703190e-002
      -4.06641141e-002 -2.77827457e-002 -3.04642618e-002
      -1.16152884e-002 3.07084876e-003 1.97468102e-002 -4.41223336e-003
      8.34155548e-003 5.14551140e-002 1.63752306e-002 -2.47755647e-002
      -2.79966202e-002 -4.13816944e-002 3.28849623e-004 -2.72963662e-002
      -9.96923596e-002 -1.14791222e-001 -2.09281184e-002 1.31554622e-003
      7.41511658e-002 2.46731006e-002 -9.66838840e-003 4.79539223e-002
      8.96690693e-003 -1.74208451e-002 -3.14103402e-002 2.32832935e-002
      6.07013777e-002 3.77144525e-003 2.53522042e-002 -8.12502671e-003
      -1.04975402e-002 -6.02660291e-002 -1.22663431e-001
      -1.13814734e-001 -6.06535189e-002 3.31731960e-002 5.00844866e-002
      7.98704773e-002 3.61724757e-002 4.38918397e-002 -1.78138912e-002
      -9.86415148e-002 -1.12245917e-001 -4.96690646e-002 2.42810007e-002
      4.96640336e-003 -1.56721137e-002 -4.03650478e-002 -5.24438452e-003
      -4.50834706e-002 2.56637204e-003 -3.95321921e-002 9.83145460e-003
      2.59898580e-003 -7.22137978e-003 2.21118182e-002 -1.95275191e-002
      2.78529860e-002 -2.10338272e-002 5.46530075e-002 3.66616696e-002
      2.79289875e-002 -6.34113979e-003 -1.85932610e-002 1.94114707e-002
      -2.88578980e-002 1.46977734e-004 -3.88607569e-002 -6.36196882e-002
      -1.19293839e-001 -9.11243111e-002 -4.74240370e-002
      -2.28649192e-002 1.04586948e-002 -2.28397474e-002 2.12345421e-002
      -1.60164442e-002 1.59437992e-002 -2.20635291e-002 -4.13829498e-002
      -1.79252177e-002 -1.48864230e-002 -3.18440609e-002
      -4.97810505e-002 2.00711773e-003 -4.97581698e-002 4.99344394e-002
      4.68973815e-002 3.84641625e-002 2.27416935e-003 2.89861485e-002
      -2.64886729e-002 -1.92004424e-002 -1.54170627e-003
      -4.97463308e-002 4.75499704e-002 3.99234146e-002 4.73146811e-002
      2.23944541e-002 -3.39552686e-002 -5.02174646e-002 -8.09210762e-002
      -1.98839083e-002 -3.80269773e-002 9.57219489e-003 -2.57541556e-002
      -6.45516962e-002 -2.52293106e-002 -5.23838168e-003
      -2.85583679e-002 -5.68479486e-002 -2.03269031e-002
      -4.80939560e-002 -8.49205814e-003 -2.01866962e-002
      -5.05591966e-002 -1.55863659e-002 5.62109649e-002 -6.34426158e-003
      -2.88510565e-002 1.82803012e-002 -5.14798984e-002 1.95292588e-002
      1.20535335e-002 4.54756916e-002 2.86877546e-002 3.05922087e-002
      1.27666593e-002 -1.62931010e-002 1.80179980e-002 -6.28765672e-002
      7.15975533e-004 -2.09980067e-002 1.17284143e-002 2.49997359e-002
      8.35829508e-003 -1.97847895e-002 -4.42098416e-002 2.57704244e-003
      -6.68450743e-002 -3.04819494e-002 -4.69372645e-002
      -4.96370308e-002 -2.53179297e-002 -4.08698507e-002
      -3.28692719e-002 -2.63992772e-002 2.15181857e-002 -5.70189059e-002
      -1.47788497e-002 -7.80672431e-002 -7.24750832e-002
      -2.76762862e-002 3.29615250e-002 4.71266657e-002 1.50537060e-003
      -1.18453326e-002 -4.65568788e-002 2.01614294e-003 -2.17564274e-002
      2.07777694e-003 2.71949880e-002 5.81184886e-002 2.94240601e-002
      -7.89035298e-003 3.17396666e-003 -2.79019829e-002 2.95104925e-002
      -1.44674219e-002 2.46168468e-002 3.95675786e-002 -4.82105240e-002
      -2.89080143e-002 -4.66385521e-002 -7.37656839e-003
      -3.16144750e-002 -2.08510291e-002 -7.35289305e-002
      -5.93852289e-002 -5.19442149e-002 -3.66819203e-002
      -4.92119603e-002 -7.53855407e-002 -1.32203372e-002
      -2.85282061e-002 -1.64217018e-002 -7.16153532e-002
      -4.00982089e-002 -3.82172279e-002 4.79576625e-002 5.40498737e-003
      -4.56003658e-002 -1.21709602e-002 -3.14764529e-002 2.13639494e-002
      2.85040168e-003 5.87523580e-002 4.18451205e-002 2.14789882e-002
      2.24533454e-002 -8.06767400e-003 1.33781796e-002 -3.19359675e-002
      2.44192481e-002 1.33970045e-002 7.14319721e-002 1.55202160e-002
      -5.72673902e-002 -8.69177952e-002 -9.04355794e-002
      -2.49071550e-002 -3.46334390e-002 1.47327706e-002 -1.40647814e-002
      -1.60677880e-002 -4.26456220e-002 -7.35057816e-002
      -9.68078226e-002 -9.18874517e-002 -4.20359187e-002
      -4.27391604e-002 2.82128118e-002 -2.70924950e-003 1.27261342e-003
      -6.69152662e-002 -3.08756717e-003 3.02351452e-002 1.59563161e-002
      5.26793264e-002 3.66108529e-002 4.50985469e-002 1.47283236e-002
      5.49040958e-002 -2.71284184e-003 -5.25747202e-002 1.82244033e-002
      8.27726535e-003 6.14561327e-002 3.13424282e-002 6.82642236e-002
      1.60683319e-002 1.79115832e-002 -2.34820899e-002 -1.28440291e-001
      -8.77211690e-002 -8.24071020e-002 -7.50977686e-003
      -1.62743405e-002 -2.67163734e-003 4.80810367e-003 3.83545761e-003
      -7.39116222e-002 -8.35008621e-002 -9.52629223e-002
      -4.75508720e-002 3.80315743e-002 -4.40332852e-003 9.20011289e-003
      -8.24148301e-003 -3.47642438e-003 -5.21811396e-002
      -2.31523830e-002 2.59491112e-002 2.24173330e-002 5.20619713e-002
      6.01667576e-002 4.70601805e-002 6.11747010e-003 -2.09584963e-002
      -1.38083324e-002 -4.87768464e-002 -1.67750549e-002
      -4.14250273e-004 5.01630008e-002 7.37702176e-002 4.08408046e-002
      -1.81567688e-002 -5.62420599e-002 -5.13861775e-002
      -2.75291167e-002 -3.93052250e-002 -7.57834699e-004 1.82665084e-002
      8.39911494e-003 2.45394576e-002 9.38521698e-003 -5.26459189e-003
      -1.96103323e-002 -4.99360301e-002 -3.99284996e-002
      -1.71269607e-002 -7.79452873e-003 1.62044331e-003 2.12018248e-002
      -1.11702299e-002 -9.53435432e-003 -2.81407423e-002
      -6.80618212e-002 -2.19673347e-002 1.27642313e-002 5.97684756e-002
      7.81464055e-002 7.40534514e-002 -3.32939764e-003 -7.71528855e-003
      -5.03425933e-002 -7.50503764e-002 -7.16419220e-002
      -8.83011613e-003 4.95264940e-002 5.46249785e-002 5.92495874e-002
      -1.21786147e-002 -1.54188843e-002 -5.26244007e-002
      -5.24665155e-002 -2.43674107e-002 8.66964366e-003 2.11248305e-002
      5.47729880e-002 5.96331619e-002 8.73510074e-003 1.04363300e-002
      -5.61342388e-002 -6.11445867e-002 -6.11877106e-002 1.70442760e-002
      3.74891460e-002 5.64852357e-002 4.76827882e-002 2.73075071e-004
      9.36779380e-003 -6.40267655e-002 -8.04461688e-002 -7.05652758e-002
      -1.72743611e-002 4.16062810e-002 4.39332053e-002 2.03693472e-002
      5.22033311e-004 -2.46238825e-003 -5.93296438e-002 -8.30906481e-002
      -8.91739875e-002 -3.62733081e-002 -1.88228935e-002 2.86105517e-002
      -3.19730677e-002 -5.02942093e-002 -5.45381829e-002
      -6.04703017e-002 -3.30219455e-002 -4.74927761e-002 7.98328687e-003
      6.39775842e-002 5.17487451e-002 3.71023230e-002 8.63420404e-003
      2.37302277e-002 -2.13205796e-002 -1.84016079e-002 1.80346880e-003
      -6.57162163e-004 3.65786552e-002 2.72124279e-002 3.73469889e-002
      -1.80890225e-002 1.50795924e-002 4.44957009e-003 -6.42023832e-002
      -6.76057711e-002 -3.49789523e-002 -3.95664945e-002
      -1.49571570e-002 -4.59304266e-002 -8.32633004e-002
      -6.20191768e-002 -5.30228689e-002 -3.22858579e-002
      -3.59309614e-002 -5.38172424e-002 -5.95450550e-002
      -5.23843914e-002 -5.57040125e-002 -7.22934678e-002
      -6.80453628e-002 -3.16460803e-002 2.34302450e-002 3.09904423e-002
      5.27633838e-002 3.69360596e-002 1.30579597e-003 3.86373065e-002
      -1.33371959e-002 2.34218128e-002 4.52429764e-002 5.14004044e-002
      2.88334936e-002 3.14090364e-002 2.42360309e-002 9.46296938e-003
      1.83202215e-002 -2.64075901e-002 2.90258545e-002 3.77900824e-002
      -4.31668423e-002 -2.95705032e-002 -5.56110553e-002
      -7.21314996e-002 -8.74122307e-002 -6.07339554e-002
      -1.98574699e-002 -2.53779497e-002 -2.08416358e-002 2.22643875e-002
      3.46459709e-002 -6.58048410e-003 -4.40121628e-002 -1.12704434e-001
      -1.10267447e-002 2.79461183e-002 5.83865605e-002 3.08568999e-002
      3.90153774e-003 -6.30199397e-003 -5.75911328e-002 -3.09290867e-002
      -4.87315208e-002 2.11573415e-003 -4.73941537e-003 1.21193472e-002
      -7.26946071e-003 5.90744847e-003 3.67384553e-002 -1.37225464e-002
      -4.02564406e-002 -6.10874966e-002 2.07904801e-002 8.32576491e-003
      4.29547988e-002 3.08529995e-002 -5.38937785e-002 9.05052759e-003
      -1.41066527e-002 -3.75698879e-002 -2.56788060e-002 1.04023200e-002
      -1.88075621e-002 -5.59216412e-003 -6.61793947e-002 1.15067866e-002
      2.52702627e-002 1.49749359e-002 -6.73625804e-003 1.05442423e-002
      2.92040836e-002 2.09880434e-002 2.81791929e-002 -1.21341422e-002
      -3.33639197e-002 4.59981523e-003 -2.48602610e-002 -4.09301706e-002
      -2.77775843e-002 1.58940069e-003 -1.87446270e-002 2.73806788e-003
      -3.91784459e-002 1.05839642e-003 1.78304594e-002 -1.53119920e-003
      -4.27035242e-003 -1.39441863e-002 3.06248739e-002 -6.37123361e-003
      -8.42433982e-003 -3.26203480e-002 8.47428944e-003 2.39244346e-002
      -6.47762232e-003 -1.03625217e-002 -3.33457477e-002 1.86694190e-002
      2.19970942e-002 1.88953746e-002 -7.11814559e-004 1.18841808e-002
      -7.03280047e-003 2.00743135e-003 -8.40952341e-003 -2.06302479e-002
      1.19697452e-002 3.44423875e-002 1.82144772e-002 -1.39051564e-002
      -3.35341729e-002 5.97065967e-003 -3.98173369e-003 1.19308960e-002
      -2.24102829e-002 4.37537441e-003 -9.93896555e-003 2.72322167e-003
      -3.07061132e-002 -3.50063853e-002 1.28144864e-002 1.10974777e-002
      -2.58932970e-002 -1.36579573e-002 8.28525983e-003 -1.46179041e-002
      8.06732452e-004 -3.08940578e-002 -6.07468141e-003 -1.70400012e-002
      -1.26305679e-002 -1.26175974e-002 -9.26149357e-003
      -1.69483777e-002 1.10421376e-002 1.72230713e-002 6.10565185e-004
      -1.56089826e-003 -1.84131321e-002 -2.62179524e-002
      -1.93824656e-002 -6.14758441e-003 -3.37865874e-002 1.58686694e-002
      3.91516276e-002 4.53070439e-002 -2.08724346e-002 -5.49901649e-003
      7.04039773e-003 -7.35373190e-003 -4.27969769e-002 -1.12225292e-002
      -1.14537554e-003 -7.69779738e-003 -1.14294020e-002 8.76949634e-003
      8.58683512e-003 -1.04865348e-002 5.68825286e-004 -3.92389856e-002
      -6.77452097e-003 -1.31755574e-002 1.04774451e-002 1.43318651e-002
      2.26116776e-002 2.33698245e-002 -2.02670544e-002 1.03012277e-002
      -4.21451069e-002 -6.61413670e-002 -7.92981088e-002
      -8.80406238e-003 2.94436794e-002 4.80663702e-002 4.14235182e-002
      6.13851240e-003 5.20893708e-002 -2.17230469e-002 -4.78436239e-002
      -7.43254125e-002 -5.89487329e-002 -4.42883372e-003 1.41087854e-002
      -4.80848365e-003 -1.72790755e-002 3.10598612e-002 -3.30741256e-002
      -6.09676540e-003 -4.83116019e-004 2.73924712e-002 1.62073895e-002
      3.48547027e-002 -7.82977883e-003 -1.50817651e-002 1.98198855e-002
      -3.85004133e-002 -7.05264090e-003 -2.35641878e-002
      -2.43224334e-002 1.23034120e-002 2.36461852e-002 2.66925450e-002
      8.09190795e-003 6.22511730e-002 2.26339977e-002 2.50752047e-002
      -6.89774901e-002 -8.93341601e-002 -4.73806523e-002
      -3.61806503e-003 2.92245168e-002 3.65566202e-002 9.21249688e-002
      7.75912330e-002 6.91255108e-002 1.05423275e-002 -6.72417805e-002
      -2.83768643e-002 -3.01113282e-003 -1.70252770e-002
      -2.17996053e-002 -1.29948906e-003 -3.92286927e-002 5.60300983e-003
      -6.14391565e-002 -1.04165792e-001 -3.11639011e-002
      -4.10780217e-003 -1.01917209e-002 -1.71859078e-002 3.72480564e-002
      1.12681102e-003 2.79848427e-002 -3.06260269e-002 -9.01799500e-002
      -5.11175431e-002 -1.34090157e-002 2.48208251e-002 -2.52563250e-003
      3.09459176e-002 5.85308410e-002 5.11793904e-002 1.22484574e-002
      -8.09973255e-002 -2.72686072e-002 4.42346511e-003 3.83676216e-002
      1.89734474e-002 4.64670360e-002 3.06819696e-002 2.68180780e-002
      5.84057998e-003 -5.88540696e-002 -1.59551464e-002 -2.10558111e-003
      -1.73819880e-003 -3.98777239e-002 -2.74637667e-003
      -3.43630812e-003 -2.47402629e-003 -3.44560072e-002
      -1.03372887e-001 -5.51545247e-002 -2.01921873e-002 1.67275150e-003
      -2.83060856e-002 1.30478945e-002 -2.30427925e-002 -9.69700236e-003
      -2.49251183e-002 -8.20387900e-002 -2.47021411e-002
      -8.09930265e-003 2.67783850e-002 1.59701537e-002 2.28604022e-002
      -1.90829206e-002 -7.26721855e-003 -2.97467108e-003
      -2.08908822e-002 -3.70642282e-002 -1.41844014e-002 1.73625499e-002
      -1.31390868e-002 4.67805862e-002 2.81370757e-003 4.14103456e-002
      2.14544255e-002 -6.22560550e-003 -1.52118485e-002 -3.70340459e-002
      -1.42628253e-002 8.67383648e-003 5.39478194e-003 -5.40140085e-002
      -2.67690755e-002 -1.16736663e-003 -2.42029596e-002
      -4.70406413e-002 -1.16370851e-002 -1.78787075e-002 3.38043575e-003
      1.33462772e-002 -3.92705686e-002 2.87607647e-002 4.87813354e-002
      2.01858636e-002 8.54811259e-003 -8.95123277e-003 1.38990919e-003
      -4.33471724e-002 1.74975712e-002 -2.71631684e-002 1.27494382e-002
      -2.07832288e-002 -2.58995872e-002 -1.17587913e-002
      -7.22148689e-003 -1.31784352e-002 -3.90510894e-002 6.53190713e-004
      -1.77828390e-002 -3.93097056e-003 -1.76722500e-002
      -3.27613987e-002 -1.23007828e-002 1.65570769e-002 -1.93112213e-002
      -4.97275554e-002 -5.64577570e-003 -3.21954414e-002 1.39736859e-002
      2.86694486e-002 1.43614048e-002 7.21663563e-003 1.23484218e-002
      -1.23089424e-003 -3.36770937e-002 -1.60194542e-002
      -2.13173237e-002 3.19738016e-002 1.48198241e-002 1.80550851e-002
      7.81348348e-003 -2.60229800e-002 -1.63514391e-002 -2.69828364e-002
      -2.54043075e-003 -1.87025797e-002 1.07636312e-002 1.55546395e-002
      -3.65938172e-002 -2.71128472e-002 -3.16736773e-002
      -2.32894141e-002 -4.85688858e-002 -1.28509253e-002
      -1.77752953e-002 4.48290780e-002 3.10887471e-002 -4.89752227e-003
      -4.63254228e-002 6.95766474e-004 -1.51867792e-003 -9.96414106e-003
      -1.08764069e-002 -1.89958941e-002 1.17135821e-002 6.79031108e-003
      -2.74988599e-002 -4.76165093e-004 2.39338875e-002 2.86912173e-002
      7.65881175e-003 -1.72265177e-003 -4.64054942e-002 6.20687753e-003
      1.41212894e-002 1.70595711e-003 5.61460853e-003 -6.52047545e-002
      -2.68854164e-002 -3.53239514e-002 -2.74163298e-003
      -4.88837697e-002 -1.92084105e-003 1.49474833e-002 -5.12605626e-003
      -4.65648919e-002 -3.40828672e-002 -3.36263180e-002 9.02322773e-003
      5.18711843e-002 -1.10988542e-002 -1.41890366e-002 1.83477081e-004
      -3.56658292e-003 -2.97540147e-002 3.89261283e-002 6.87790960e-002
      2.26780493e-002 -7.51975318e-003 -5.05810194e-002 -6.16825372e-003
      1.62999518e-002 1.96138509e-002 1.41768120e-002 5.87296002e-002
      6.40138686e-002 3.26985903e-002 3.02550886e-002 -1.44628417e-002
      -1.19050834e-002 2.66020820e-002 4.79334453e-003 2.72461716e-002
      1.39070610e-002 6.19242759e-003 7.50614936e-003 2.87787598e-002
      -2.68087219e-002 -1.74670201e-002 -1.63711086e-002
      -3.54096554e-002 -3.00783641e-003 8.30353610e-003 2.52235699e-002
      -8.66110250e-003 -1.27541162e-002 -6.37441278e-002
      -2.35186946e-002 -2.86586601e-002 9.11050849e-003 1.78914964e-002
      5.04358672e-002 2.14790478e-002 -1.11571401e-002 1.00033982e-002
      -2.87751202e-002 -2.83653829e-002 1.24047534e-003 -3.52325216e-002
      1.02105336e-002 2.21103728e-002 1.94673110e-002 -1.27353007e-002
      -2.96833869e-002 -6.08897693e-002 -2.10676957e-002
      -1.13221491e-002 -2.00577844e-002 2.68195700e-002 -2.77701952e-002
      -6.75757136e-003 -5.84169710e-003 -2.56832559e-002
      -4.83756848e-002 -8.89682677e-003 -3.60669270e-002 3.42751411e-003
      -1.60420071e-002 -2.03745272e-002 -1.66372433e-002 1.75961405e-002
      7.17333239e-003 -1.21585932e-002 -4.63692378e-003 -1.87266767e-002
      -8.90502986e-003 -7.57052656e-003 8.77018739e-003 1.53188817e-002
      1.55195072e-002 -4.71657850e-002 -7.44312033e-002 -3.55390236e-002
      -4.07085977e-002 -1.65128207e-003 -1.20957829e-002 3.57440412e-002
      1.77640822e-002 3.01263225e-003 -3.33427778e-003 -1.97612178e-002
      -2.60528028e-002 -2.21686084e-002 1.05851460e-002 3.41885164e-002
      -1.06796920e-002 -2.71765310e-002 -1.58242900e-002
      -1.51628477e-003 -3.63176093e-002 -2.08423417e-002
      -2.78914459e-002 5.95739437e-003 -8.76856595e-003 1.43826497e-003
      4.00556484e-004 -2.36209258e-002 -4.35228739e-003 -4.37018648e-002
      4.06736461e-003 -5.34833930e-002 2.14115400e-002 -1.44755030e-002
      2.30025984e-002 1.27727073e-002 -5.20499572e-002 -2.33071335e-002
      -5.47364466e-002 -8.15383904e-003 -1.73384175e-002 3.05780470e-002
      2.80519053e-002 -2.71172896e-002 -1.57742612e-002 -3.22860703e-002
      5.74766099e-003 -4.16710973e-002 1.56117836e-004 -4.07534949e-002
      2.40839589e-002 -1.71142593e-002 6.08435925e-003 1.64153762e-002
      5.40139386e-003 8.51034932e-003 -7.57502913e-002 1.19334422e-002
      -4.85011414e-002 1.45662092e-002 2.14824430e-003 1.01172961e-002
      6.37024594e-003 -4.61883470e-003 -1.43400831e-002 -7.30867535e-002
      -2.87236609e-002 -4.48336974e-002 2.08753329e-002 2.49324962e-002
      -9.92924999e-003 -3.66334082e-003 1.75104234e-002 5.03820404e-002
      -5.50208688e-002 -3.03449109e-004 -3.64799313e-002 1.09330099e-002
      -1.53600210e-002 1.47518646e-002 3.18139829e-002 3.41133550e-002
      -8.06146767e-003 -7.91496858e-002 -2.74073016e-002
      -2.77562030e-002 2.87984777e-002 2.20543742e-002 -8.48861039e-003
      2.04033870e-002 -2.75111403e-002 -8.16643611e-003 -7.35486895e-002
      -1.16599677e-002 -1.59489159e-002 1.28892446e-002 2.32753064e-003
      -3.33325006e-002 2.19686087e-002 -2.04024669e-002 -2.88042706e-002
      -6.50756359e-002 -2.40184795e-002 -1.27672656e-002 5.19893877e-003
      -1.67406946e-002 -1.01166908e-002 3.83427665e-002 -2.22627004e-003
      -2.59915870e-002 -6.21082485e-002 -1.17625548e-002 2.30803398e-005
      4.67865542e-002 -9.65350121e-003 -3.91261503e-002 1.58935115e-002
      -4.16325964e-002 -9.54210944e-003 -4.02750038e-002
      -1.61800440e-002 1.01601994e-002 2.33405717e-002 -3.51864062e-002
      -8.90166219e-003 -3.11341230e-003 -2.17879750e-002
      -2.82468442e-002 -4.38775197e-002 1.66322272e-002 -5.37995854e-003
      2.11325232e-002 -2.24465653e-002 2.42714933e-003 -2.98148341e-004
      -2.42150370e-002 -1.83662269e-002 -3.72988395e-002 3.48916240e-002
      5.97870862e-003 -8.88907444e-003 -3.10486052e-002 -4.81292084e-002
      -1.24250827e-002 -2.26547103e-002 -2.56944597e-002
      -2.68627685e-002 1.49035649e-002 -4.71506268e-003 2.75468528e-002
      -4.01559509e-002 -1.89368278e-002 5.31664630e-003 -2.70010680e-002
      -1.13503831e-002 -3.56727988e-002 1.01430910e-002 -5.39682340e-003
      1.54603496e-002 -3.21295522e-002 -8.90072063e-003 -3.82740691e-004
      -2.27722544e-002 2.19049510e-002 -2.88094599e-002 7.95216940e-004
      -1.34856710e-002 -1.06127122e-002 -3.32371965e-002
      -2.40003988e-002 8.38376395e-003 -9.94253159e-003 2.08777189e-002
      -5.25100483e-003 1.33025330e-002 -1.70911830e-002 -1.46089159e-002
      -4.76081222e-002 4.34127450e-003 2.50904001e-002 -2.14597825e-002
      1.42299803e-002 -2.30586026e-002 7.67591503e-003 -2.37656236e-002
      3.48308496e-003 -1.97665356e-002 -4.46158182e-003 7.57012703e-003
      -2.83011161e-002 -1.14732292e-002 -2.38032565e-002 6.90126605e-003
      -1.63157266e-002 -5.50506497e-003 -1.61315333e-002
      -1.50646660e-002 -4.51688218e-004 -1.94823090e-002 1.60729848e-002
      -2.17510574e-002 1.34081217e-002 -1.04061039e-002 -1.45868380e-002
      -2.07485314e-002 -5.30282443e-004 4.91520250e-003 -1.68786093e-003
      2.47857980e-002 -2.20413264e-002 1.62308011e-002 -1.51323806e-002
      -1.64706726e-003 -2.02268176e-002 -1.36132594e-002
      -3.28019597e-002 -5.33272848e-002 -2.28415448e-002
      -3.32444310e-002 -1.72001813e-002 -2.88964584e-002
      -1.31646749e-002 -4.08910848e-002 -3.58897774e-003
      -1.96787938e-002 1.61321915e-003 7.25021865e-003 7.71422405e-003
      7.77484244e-003 -1.51757719e-002 -1.86264887e-002 -2.05429494e-002
      3.51841934e-003 -2.09269859e-003 -9.95075330e-003 2.26931404e-002
      -5.28796501e-002 -1.10397243e-003 1.28667196e-002 3.31111555e-003
      -5.31993434e-002 3.58200981e-003 -8.68985336e-003 -1.94479395e-002
      -1.83667333e-004 -4.63460162e-002 -9.80271678e-003
      -6.12871163e-003 -2.88569443e-002 -1.50219686e-002 2.11763848e-002
      1.03589781e-002 1.16467173e-003 1.70697831e-002 -3.29629555e-002
      -8.08266364e-003 -1.03147170e-002 -5.97651815e-003
      -8.06531776e-003 2.92177517e-002 5.02030039e-003 -2.38262489e-002
      -8.62621237e-003 -6.34021824e-003 1.12727229e-002 2.52059642e-002
      1.03836348e-002 4.59828228e-003 3.21382619e-002 1.16654672e-002
      -1.55803673e-002 -2.43453253e-002 -6.40513748e-002
      -1.34474700e-002 -1.96516700e-002 -6.57233000e-002 3.62393050e-003
      2.28405669e-002 7.44985463e-003 -1.77275818e-002 -3.85711994e-003
      -3.53655443e-002 1.97781567e-002 7.49970041e-003 -1.68018732e-002
      -1.07319728e-002 2.52520647e-002 -9.23706032e-003 -4.07273062e-002
      -3.16231512e-002 -3.53059992e-002 -8.31287820e-004 3.35139856e-002
      8.51793506e-004 2.26692632e-002 1.54668298e-002 -4.26128041e-003
      -3.13634239e-002 2.60843616e-003 -1.37676699e-002 3.07927039e-002
      4.68462482e-002 1.02624586e-002 1.24701913e-002 -6.87838299e-003
      -6.58118539e-003 -3.78522947e-002 -8.42941459e-003
      -5.73563986e-002 1.57168712e-002 5.53498371e-003 -2.61797979e-002
      -3.75104398e-002 -7.91937637e-004 1.61530785e-002 -1.09844357e-002
      2.54012439e-002 -5.83481081e-002 4.77895653e-003 7.46016763e-003
      -2.23935698e-003 -1.53761283e-002 1.72467474e-002 1.71909984e-002
      -2.79830769e-002 -5.43285743e-004 -6.08355179e-002 5.25711617e-003
      7.27294246e-003 -1.85165822e-003 -2.89625535e-003 2.89761480e-002
      4.33118381e-002 2.51103379e-002 2.63220705e-002 -7.28399232e-002
      -1.08509408e-002 1.90858841e-002 2.89920066e-002 2.33619493e-002
      -2.18655635e-002 -4.73859627e-003 1.99765917e-002 2.59956438e-002
      -8.80956575e-002 -4.29511033e-002 -1.75965708e-002 7.73219811e-003
      -2.66617145e-002 -6.06700126e-003 -5.01149474e-003 5.17919064e-002
      2.59356759e-002 -6.20011725e-002 3.70127335e-003 2.76216678e-002
      2.91459225e-002 -7.29988050e-003 3.08128670e-002 -1.28518499e-003
      1.15603693e-002 1.09326597e-002 -9.74648520e-002 -3.29772383e-002
      2.29688250e-002 3.72919254e-002 1.13614565e-002 2.88674589e-002
      1.47144403e-003 1.53434873e-002 1.81489568e-002 -5.44105917e-002
      -1.18471542e-002 8.01828224e-003 3.95377874e-002 1.27455015e-002
      1.39730526e-002 -2.64619626e-002 -1.09646865e-003 7.92231038e-003
      -5.07025793e-002 3.26285101e-002 3.14184129e-002 2.20800806e-002
      1.21332775e-003 4.83985106e-003 2.02760566e-002 -4.12880816e-003
      -3.89617449e-003 -2.17303261e-002 5.55908568e-002 2.94101126e-002
      3.14814001e-002 -5.55940578e-003 -2.51181191e-003 -1.44836474e-002
      1.00991046e-002 9.18869302e-003 -6.56248033e-002 -1.84106566e-002
      -5.57136117e-003 2.85370070e-002 1.33990897e-002 1.11845145e-002
      -4.66176914e-003 -1.98395327e-002 -4.08570059e-002
      -6.86200634e-002 -1.74586456e-002 -1.11230323e-002 1.16886571e-002
      1.78430863e-002 9.08537360e-004 2.45236605e-002 -1.44134061e-002
      -2.68121716e-002 -4.14181240e-002 9.80807189e-003 -9.32411011e-003
      3.94855253e-003 -1.66874547e-002 3.46780904e-002 5.50423600e-002
      2.18145456e-002 2.13260129e-002 -5.53451329e-002 -8.66713282e-003
      2.50789686e-003 1.91507470e-002 -7.44375819e-003 1.50287908e-003
      5.76787570e-004 -2.77706385e-002 -5.31279407e-002 -5.84009364e-002
      -3.12169250e-002 -2.05186885e-002 -1.04531934e-002 4.38685669e-003
      2.88967974e-003 1.17210364e-002 -7.19731441e-003 -1.10459756e-002
      -2.19815988e-002 9.16904211e-003 -5.58768027e-003 4.24677832e-003
      9.95490514e-003 2.92078666e-002 5.13404272e-002 3.47469957e-003
      4.69069369e-003 -4.24051322e-002 -7.58264679e-003 1.61734555e-004
      1.51631068e-002 3.24373716e-003 2.83632986e-002 7.74655212e-003
      -1.17407450e-002 -1.53800740e-003 -1.71929738e-003 7.10642198e-003
      2.31286641e-002 2.60806046e-002 4.00930503e-003 -3.22132036e-002
      -5.70558524e-003 -3.01043838e-002 -9.67764389e-003
      -1.12836473e-002 -1.42074004e-002 -2.18095984e-002
      -1.37135867e-005 -8.27857479e-003 -2.23399643e-002
      -4.33585607e-003 -2.76685059e-002 -2.19113827e-002 7.81888980e-003
      -5.87859377e-003 -2.62075067e-002 3.10882907e-002 -1.52438367e-002
      3.08501367e-002 -8.56665522e-003 -1.12226626e-004 6.25659432e-003
      -3.07375845e-002 1.27885602e-002 1.17265815e-002 2.41641719e-002
      1.04629640e-002 2.79414766e-002 -1.11062778e-003 1.65078361e-002
      -9.43813473e-003 -4.69794944e-002 7.46352412e-003 7.38333724e-003
      -3.60504212e-003 3.03325597e-002 -8.91523436e-003 5.49993238e-005
      -2.63313986e-002 -1.19258221e-002 -1.05068078e-002
      -6.86154090e-005 -3.38857621e-002 3.44268531e-002 1.65811961e-003
      -1.81518532e-002 1.95386447e-003 1.74429489e-003 1.53008814e-003
      -2.65096482e-002 -2.66457722e-003 -1.39609221e-002 5.92530565e-003
      4.78795404e-003 -9.38962679e-003 8.56744591e-003 9.51182190e-003
      -5.76613517e-003 -6.63891211e-002 -1.37912082e-002
      -1.10819060e-002 -1.21231191e-002 -5.25867147e-003 1.23612741e-002
      2.61957105e-002 4.16252250e-003 3.47864032e-002 -1.32311983e-002
      1.97342969e-002 -2.27697119e-002 3.86357075e-003 -3.24489013e-003
      -3.03540044e-002 -5.06687502e-004 -3.74588277e-003
      -6.81584561e-003 -6.04313724e-002 -3.73053178e-002
      -2.01414190e-002 -2.18376555e-002 -2.42287014e-002 2.06981488e-002
      3.09929182e-003 -2.66750082e-002 2.90890746e-002 -3.56597565e-002
      2.33300291e-002 -4.49498631e-002 1.69291350e-004 2.66383332e-003
      8.30694754e-003 2.15683728e-002 -3.04708369e-002 1.10692373e-002
      -6.85004191e-003 1.88426077e-002 -2.59310640e-002 1.37844393e-002
      -8.83551035e-003 -1.60261542e-002 -3.85061353e-002
      -3.79129648e-002 4.27352125e-003 -4.25433554e-003 2.13540476e-002
      -4.20791581e-002 6.12625852e-003 -1.45385945e-002 1.89027414e-002
      7.89778191e-004 -3.62650715e-002 -1.19222177e-003 -2.70487238e-002
      -2.37597036e-003 -6.71209320e-002 -3.48444767e-002
      -2.97211204e-002 -5.92771824e-003 -2.57653873e-002
      -4.78009395e-002 -7.20911520e-003 -2.96658017e-002
      -1.31498827e-002 -7.79812038e-002 -5.25639355e-002
      -3.91158573e-002 -1.32614570e-002 -3.23911314e-003 1.43748615e-002
      4.03731652e-002 -4.21961807e-002 1.32146263e-002 -3.56922038e-002
      5.78514813e-003 -8.51318240e-003 1.17652593e-002 3.87336165e-002
      4.10640873e-002 2.15832908e-002 -8.28621909e-002 -1.90439671e-002
      -2.63875537e-002 2.84212213e-002 -5.83310425e-003 1.67546161e-002
      2.23211420e-004 -2.53289677e-002 4.36991453e-003 -5.86107597e-002
      -1.05585260e-002 -4.88226861e-002 -2.02434473e-002 2.86088092e-003
      2.51431689e-002 7.17378641e-003 -3.40846367e-002 1.33985875e-003
      -9.22884196e-002 -3.96857709e-002 -3.04257087e-002
      -2.10869708e-003 -1.11110937e-002 6.80898363e-003 3.44035327e-002
      2.74002063e-003 -1.00424848e-002 -8.35530311e-002 1.22558360e-003
      5.21902548e-005 4.35296297e-002 -8.29401799e-003 -7.14853546e-003
      7.46203167e-003 -4.50805090e-002 1.26380017e-002 -7.07801655e-002
      -8.08077585e-003 -6.13674149e-003 3.87190878e-002 -1.57001968e-002
      1.66304056e-002 1.28393751e-002 -2.54772659e-002 -5.73063362e-003
      -7.45068192e-002 -4.23198342e-002 -4.13390249e-002 3.31347203e-003
      -1.53634492e-002 -1.14593823e-002 1.43511714e-002 1.58984552e-003
      2.98478687e-003 -5.96572347e-002 -5.40371090e-002 -5.07136844e-002
      2.27697473e-002 -1.33477803e-002</_></support_vectors>
  <decision_functions>
    <_>
      <sv_count>1</sv_count>
      <rho>-6.5318144014781003e+000</rho>
      <alpha>
        1.</alpha></_></decision_functions></opencv_ml_svm>
</opencv_storage>
